4087446 200
</s> 0.001701 0.002050 0.000891 0.001214 0.002004 0.000342 0.001856 0.002271 0.001959 -0.001614 -0.000782 0.002103 -0.000711 -0.000124 0.001599 0.000390 -0.000617 -0.002397 -0.001210 0.001505 0.001459 -0.001735 -0.002029 -0.000961 0.001868 -0.001544 -0.001749 0.001299 -0.001696 -0.000997 -0.000292 -0.002351 -0.000585 0.002134 0.001393 0.001875 -0.000637 -0.000048 -0.001323 0.001349 -0.001725 -0.000219 -0.000794 -0.001262 0.001571 -0.001318 -0.001350 -0.002051 0.000264 0.001524 -0.000652 -0.000335 -0.002459 0.002166 -0.001433 0.000446 0.002357 -0.002329 0.000119 -0.001517 0.002187 0.001904 -0.001897 0.001523 -0.000100 -0.001382 -0.001001 -0.002079 0.002310 -0.001701 -0.001935 0.000971 -0.002460 0.001697 0.001605 0.001933 0.002026 0.000340 -0.000306 -0.001093 0.001126 0.001467 0.002443 0.000517 -0.001359 -0.001529 -0.001135 0.001608 -0.001677 -0.001136 0.002008 -0.001580 -0.000067 0.002279 -0.000613 -0.002127 -0.002223 -0.002067 -0.001488 -0.002229 0.000669 0.001111 0.000979 0.000149 -0.000605 0.001218 -0.002066 0.002274 0.001285 0.000354 -0.000543 0.001128 0.000008 -0.001716 0.001530 0.001896 0.000242 -0.001490 -0.000220 -0.001560 -0.000768 0.000900 0.000237 -0.001487 0.000607 -0.002176 0.001538 0.001734 -0.001796 0.001478 0.001076 0.001399 0.000887 -0.001429 0.001963 -0.000765 0.001826 0.002476 0.002425 0.000212 -0.000211 0.002155 -0.000933 -0.000643 -0.000016 -0.001856 0.002180 -0.002343 0.001214 0.000980 -0.001728 -0.001255 -0.000149 -0.001378 0.001807 0.001517 0.001034 0.002318 0.000384 -0.001895 -0.002278 -0.000185 -0.002499 -0.000387 -0.001646 0.002168 0.002348 -0.000203 -0.000757 -0.001127 0.001950 0.001779 0.000284 0.000668 0.000910 0.001969 0.001540 0.001859 0.000425 -0.001702 0.001475 -0.001416 0.000080 -0.001575 0.000502 -0.001739 -0.001244 -0.001179 0.000790 -0.000959 0.000743 -0.002445 -0.000293 0.001014 -0.000619 0.000028 0.001058 0.002230 0.001036 -0.001944
the 0.053826 -0.176276 0.099365 -0.049133 0.021187 -0.008230 -0.113756 -0.095114 -0.056807 0.055530 -0.014262 -0.093214 0.059495 -0.049235 -0.040011 0.050247 0.007517 -0.154556 0.018949 0.078781 -0.112987 -0.038954 0.081557 -0.014976 0.029104 0.150577 -0.028782 -0.025953 -0.000610 0.057754 0.139605 -0.137847 -0.000938 0.080222 0.069961 -0.033301 0.041647 0.065261 -0.154622 -0.096319 0.056123 0.026215 0.008645 0.008013 0.042134 -0.057220 -0.156485 -0.117510 0.084051 -0.211693 0.011742 -0.044410 -0.010794 -0.001246 -0.023025 0.087218 0.178396 0.156146 -0.014158 0.021387 0.088291 -0.007363 -0.022337 0.046680 -0.033387 -0.100345 -0.003790 0.027761 -0.022481 -0.032924 0.028705 -0.125183 0.030410 0.052734 0.031685 -0.083647 0.052722 0.044196 -0.028366 -0.121158 0.041515 -0.152831 0.069223 0.008258 -0.032887 0.018672 0.054488 -0.025618 0.020378 -0.039580 -0.061217 -0.095578 -0.004264 -0.143794 0.166607 -0.019697 0.015838 0.006964 0.127003 -0.099998 0.061202 0.025111 -0.164899 0.005163 0.030746 -0.118568 0.029599 0.149827 -0.017624 0.092416 -0.058584 -0.001843 -0.033285 0.050255 0.023471 -0.034549 -0.139159 0.049707 0.013464 -0.126469 0.126277 0.048509 -0.050054 -0.150451 0.096059 -0.017265 -0.115127 -0.084929 0.057146 -0.043411 0.025851 -0.135165 -0.022560 0.049134 -0.054876 0.188663 0.035386 0.008444 -0.121894 0.013688 -0.003872 0.166852 0.031315 0.170061 -0.034715 -0.014854 -0.025636 -0.272696 -0.073340 0.060282 0.126827 -0.032630 0.099395 0.059411 0.071674 -0.029813 0.301423 0.060469 0.131371 -0.008875 -0.091505 -0.044875 0.076489 0.043989 -0.081434 0.016080 -0.143859 0.039918 -0.097317 -0.097229 -0.018798 -0.121481 0.023491 -0.092189 0.110073 -0.064938 0.031184 -0.228098 0.170327 0.085383 -0.006649 -0.049783 -0.161264 0.029713 0.223488 0.009204 0.161155 0.057253 0.012675 -0.014568 0.001310 -0.126400 -0.054883 0.130255 -0.015792 -0.073996 0.046151 0.260303 -0.099558 -0.056976
, 0.116655 -0.016495 0.029630 0.092050 -0.078061 0.144612 -0.010060 0.169730 -0.099059 -0.006823 0.048019 -0.100464 -0.105018 -0.064288 -0.043905 0.010076 -0.171484 -0.076102 0.095982 0.039227 -0.010651 0.061713 -0.086619 -0.224760 0.076669 0.065921 0.029364 0.007425 0.110162 -0.019432 0.014395 -0.042272 -0.016864 -0.059034 0.130379 0.013989 -0.078842 0.145039 -0.124006 -0.025356 0.034435 0.018956 -0.109297 -0.038878 -0.056422 0.030424 -0.053695 -0.113723 0.030928 -0.076525 0.037065 0.065036 0.029537 0.216548 0.051153 0.043141 -0.031748 0.057504 -0.018005 -0.103691 0.026901 -0.229228 0.097776 0.074515 0.032457 -0.054717 0.051492 -0.049917 -0.039703 0.154636 0.197388 -0.030840 0.028825 0.058808 0.044053 -0.015378 0.153487 -0.110775 0.025802 0.090274 0.051861 -0.238107 -0.079922 -0.147500 -0.115571 -0.109854 -0.007271 -0.001531 -0.040193 0.007948 -0.099843 -0.013469 -0.061913 -0.168916 0.131788 -0.026292 -0.130201 -0.026370 0.115996 0.026672 -0.022029 0.047826 -0.082732 -0.010616 -0.069321 0.003610 0.010207 -0.017354 -0.019776 -0.006215 -0.123961 0.072256 0.057300 -0.007268 -0.006731 0.052943 0.032165 -0.079136 0.083441 -0.080106 0.004170 -0.027212 -0.086812 -0.164781 0.054154 0.013897 -0.135494 0.048710 -0.083602 0.024908 -0.082245 -0.065169 -0.000131 -0.108071 -0.045497 0.222404 -0.016757 0.007040 0.192758 -0.021506 -0.141923 0.093764 -0.104442 0.127239 0.038581 -0.021546 0.136103 -0.182202 0.180366 0.047507 0.012270 -0.167912 0.199669 0.158745 0.007766 0.040898 -0.030158 -0.048412 0.076947 -0.027356 0.088873 -0.024321 -0.013163 0.206503 -0.111162 -0.039237 -0.123330 0.091098 0.067354 -0.027665 -0.114159 -0.132305 0.119098 -0.008223 -0.118051 -0.164420 -0.058648 -0.094075 0.014855 -0.025823 -0.042491 -0.139877 -0.089815 -0.079128 0.227948 -0.057806 0.001191 -0.078390 -0.009545 0.155969 -0.139870 -0.000074 -0.104029 0.193023 -0.051656 0.074778 -0.011675 0.069889 0.037545 -0.153111
. 0.236210 -0.091600 0.143624 -0.081086 -0.030944 0.011014 -0.170982 -0.011161 -0.010470 -0.018147 0.072311 -0.060134 0.127979 -0.076177 -0.085343 0.064512 -0.149908 0.067503 0.045856 0.166403 -0.003816 -0.046213 0.049954 -0.257959 0.078494 0.095990 0.015513 -0.029501 0.041881 0.028280 0.149870 -0.072853 -0.161121 0.043300 0.163040 -0.030686 0.037229 0.157082 -0.067715 -0.039489 0.165091 0.065068 0.034567 0.141194 0.011490 0.184432 -0.190504 -0.089829 0.103103 -0.036240 -0.024779 -0.060030 0.023188 0.278012 0.093141 -0.012159 0.012190 -0.134762 -0.063714 -0.052140 -0.057286 -0.020655 0.047249 -0.065239 0.102722 -0.051939 0.117583 -0.032061 0.021198 -0.031692 -0.086515 -0.115864 -0.104111 0.051287 0.040968 -0.278031 0.051539 -0.004923 -0.231592 -0.088677 -0.017253 -0.172226 0.043398 0.029480 -0.156898 -0.034535 -0.050102 -0.196976 -0.073156 -0.068209 -0.125790 -0.147164 0.052717 -0.070480 0.091997 -0.135162 -0.184192 -0.226327 0.084940 0.011975 0.014165 -0.098262 -0.055356 -0.034974 -0.063259 0.081975 -0.066083 0.111233 0.070346 0.024297 -0.036215 -0.051037 0.138579 0.127500 -0.093919 -0.030112 0.009110 -0.199923 0.020080 -0.050615 -0.107297 0.081228 0.029211 -0.072533 -0.017050 -0.071256 -0.331823 -0.089485 -0.039247 0.051689 0.008959 -0.098425 0.052874 -0.008631 0.003751 0.158205 -0.063481 0.318878 -0.047947 0.214483 -0.182331 0.084174 0.009294 0.174913 -0.071306 -0.036016 0.152023 -0.065093 -0.065689 -0.004234 0.163160 -0.201235 0.126395 0.133224 0.049377 0.169820 -0.008427 -0.113607 -0.097806 -0.074274 -0.024930 -0.002033 0.095246 0.158342 0.110609 0.023776 -0.138464 0.058450 0.005190 -0.311843 -0.051519 -0.179376 0.221577 -0.067318 -0.105654 -0.078482 0.066342 -0.086014 0.084252 -0.069487 -0.035245 0.003923 -0.189358 -0.233601 0.126394 -0.059152 0.078964 0.011708 0.003818 -0.022507 -0.143158 -0.130894 0.001796 0.244161 -0.025332 -0.146654 -0.058479 -0.006001 -0.029359 -0.066404
of 0.009356 -0.141998 0.129608 -0.045005 0.048822 0.016419 -0.031780 -0.100220 -0.070161 0.141813 0.015827 -0.115294 0.129499 0.039242 0.057412 -0.083481 0.031950 -0.081944 -0.081928 0.109593 -0.042346 -0.067022 0.100866 -0.098397 0.059723 0.143252 0.057395 -0.095505 0.069241 0.056345 0.038551 -0.097227 -0.059760 0.105467 0.056725 -0.014940 0.008383 0.004232 -0.013705 -0.011005 -0.042396 0.054298 0.020577 -0.152851 0.109447 0.063986 -0.223229 -0.118073 0.020964 -0.095102 0.019801 -0.022085 0.028669 -0.002721 -0.122344 0.062382 0.140975 0.080934 -0.024361 -0.092887 0.045353 0.031108 -0.137430 -0.019164 0.073090 -0.150429 0.087762 0.064222 -0.022938 -0.064265 0.094826 -0.053931 -0.023808 -0.033702 0.001755 0.145725 0.025196 -0.001508 -0.054701 0.008669 0.039536 -0.125761 -0.035345 0.068591 -0.081438 0.045315 -0.045968 0.012398 0.052205 -0.020803 0.065975 -0.259713 -0.101209 -0.030574 0.202789 -0.006203 0.003468 0.021716 0.106691 -0.135295 0.097313 0.083390 -0.128095 -0.092220 -0.044715 -0.083087 0.050326 0.189427 -0.085687 0.046023 -0.049156 -0.050752 -0.008711 -0.065978 -0.020863 -0.048144 -0.135731 0.105209 -0.003803 -0.004847 0.216908 -0.013588 -0.061482 -0.186123 -0.019903 -0.006578 0.118371 -0.067872 0.011004 -0.060507 -0.080661 0.017367 -0.020733 0.068124 -0.062477 0.024971 0.105384 -0.040598 0.062484 0.137191 -0.036152 0.131315 0.032055 0.215359 -0.149279 -0.024297 -0.001267 -0.231441 0.064458 0.033380 0.068789 -0.100870 0.154265 -0.007580 -0.016662 -0.093784 0.118736 -0.047762 -0.046397 -0.013419 -0.109183 -0.025374 0.233883 0.082305 -0.083577 -0.091637 -0.074305 0.017732 -0.081173 -0.012210 -0.022763 -0.080845 0.008216 -0.127967 -0.087792 0.025527 -0.071057 -0.228633 0.030291 0.018352 0.041233 -0.150878 -0.146160 0.091294 0.112948 -0.006955 0.086075 -0.002322 -0.046246 -0.119312 -0.077074 -0.117433 -0.104676 0.206951 0.009847 -0.152036 -0.033546 0.133764 -0.088730 -0.135633
and 0.115095 -0.081107 0.089955 -0.007342 -0.001320 0.025185 -0.060832 -0.039482 -0.108394 0.053257 0.094843 -0.046068 0.102640 0.025273 -0.025129 0.036559 -0.095667 -0.102844 0.040523 0.049129 -0.014348 -0.012972 0.004100 -0.149813 0.067694 0.066312 -0.026632 -0.004637 0.013054 0.017663 0.157480 -0.007361 -0.024891 -0.055363 0.057361 0.068535 -0.016694 0.077959 -0.064219 -0.023955 0.012445 0.037437 0.028013 0.037888 -0.047135 0.088645 -0.177850 -0.169781 -0.048761 -0.125340 -0.043835 -0.065664 -0.005874 0.139633 -0.000452 0.037613 0.024372 -0.017266 -0.057407 0.014155 0.008184 0.006124 0.046615 0.018394 0.057466 -0.003530 0.056804 -0.087051 0.011668 -0.021010 0.007798 -0.037329 -0.062829 0.039315 0.053215 -0.062010 0.023432 0.027978 -0.103248 -0.021673 0.054729 -0.235438 0.069071 0.071081 -0.050981 0.076095 -0.054368 -0.072260 -0.037796 -0.013867 -0.073231 -0.134127 0.028559 -0.044218 0.060696 -0.135276 -0.047075 -0.124132 0.175868 0.044508 0.025662 0.045528 -0.074423 -0.004929 -0.053904 -0.044511 0.009669 0.074600 -0.030514 -0.066567 -0.096846 0.024891 0.067519 -0.015187 -0.080483 -0.052783 -0.012396 -0.057395 0.097251 -0.083844 0.123413 -0.080801 -0.046336 -0.113104 -0.038079 -0.079116 -0.224671 -0.096512 0.051072 0.018500 0.022317 -0.062924 -0.128970 0.032838 -0.016414 0.118166 0.042585 0.094550 0.125595 0.109097 -0.148910 0.037377 0.006696 0.122893 -0.001627 0.087082 -0.002949 -0.069837 0.007095 0.000254 0.108780 -0.164526 0.200471 0.175118 -0.032800 0.085754 0.035921 -0.011783 -0.041837 -0.048595 -0.062228 0.074759 0.081792 0.198783 -0.055276 0.078302 -0.103057 0.086933 0.063188 -0.037554 -0.067902 -0.063247 0.173682 -0.135640 -0.180214 -0.012790 -0.001534 -0.106061 0.063777 -0.032802 -0.061098 -0.064954 -0.037567 -0.150869 0.134668 -0.026321 0.065465 0.049984 -0.006395 -0.022738 -0.139115 -0.059936 -0.059249 0.179242 -0.010562 0.011431 -0.121511 0.065179 0.059308 -0.099701
in 0.190115 -0.028251 0.271463 -0.082398 0.091594 0.006943 -0.002817 -0.061084 -0.029802 0.009587 0.163236 -0.107977 0.030205 0.012549 0.109582 -0.087693 -0.019225 -0.058284 -0.130541 0.278288 -0.003667 -0.108476 -0.008913 -0.124711 -0.079534 0.032972 -0.069537 -0.044883 0.020668 -0.052980 -0.016601 -0.028868 -0.006677 0.159693 0.030228 -0.073680 0.092228 0.106645 0.045121 -0.056920 0.025205 0.013901 0.061112 0.097705 -0.034876 -0.089219 -0.237625 -0.157893 -0.018042 -0.152996 0.005898 0.033017 0.000616 0.179694 -0.082007 0.033818 0.076340 0.032615 0.008145 -0.042313 -0.008696 -0.079476 -0.128357 0.054657 0.105827 0.159453 0.176054 0.039108 0.096520 0.037385 0.108612 -0.047344 -0.017841 0.078913 0.148932 -0.127525 0.157881 -0.041613 -0.109454 0.075806 0.162114 -0.256836 0.034832 0.154238 0.018060 0.067713 0.029341 0.045506 -0.066357 -0.077759 -0.021775 -0.126252 -0.222803 -0.068965 0.010019 0.111314 -0.005672 -0.041150 0.009755 -0.121934 0.045895 0.063439 -0.077941 -0.071254 -0.101325 -0.033433 -0.103941 0.198782 0.086238 0.077939 0.003158 -0.004569 0.031903 -0.140407 0.035964 -0.097983 -0.067090 -0.087079 -0.024451 -0.153931 -0.036814 0.023455 0.013891 -0.051830 -0.056229 0.007039 -0.028987 -0.029224 -0.034380 -0.044736 0.100069 0.108800 -0.129788 0.082455 0.016638 0.128156 -0.055888 0.129664 0.005406 -0.093440 -0.171673 0.128624 -0.075782 0.144258 -0.167406 -0.096932 0.042557 -0.280830 0.038875 -0.044548 0.022978 -0.150012 0.029551 0.103629 0.038727 -0.042093 0.020500 -0.033275 0.140329 -0.119402 -0.125973 0.001187 0.203281 0.133957 0.149915 0.017098 -0.105665 -0.010043 0.038489 -0.171958 0.016897 -0.091275 0.159514 -0.140025 -0.049389 0.019880 -0.197643 -0.168092 -0.026312 0.089877 -0.106369 0.049220 -0.242715 0.033886 0.002123 0.034502 -0.041069 0.079136 -0.115118 -0.054012 -0.109014 -0.064698 -0.122229 0.096813 -0.018902 -0.005794 0.021507 0.149621 -0.057672 -0.132695
) 0.084298 -0.000130 0.079623 0.013952 0.035287 0.003695 0.040054 0.161266 -0.026307 0.038880 0.004503 -0.231435 0.036110 0.121556 -0.022491 0.078960 -0.056174 0.120756 0.072853 -0.040173 0.079112 -0.012139 -0.013804 -0.188023 0.077943 0.010003 0.003438 -0.061049 0.203062 0.046190 0.178433 -0.001900 -0.027779 0.012917 0.102049 -0.047340 -0.071273 0.183435 -0.072866 0.083042 0.143124 0.052876 0.068195 0.052710 -0.053670 0.179866 0.018563 -0.001850 0.007363 0.065255 -0.175642 0.069547 0.077507 0.269955 0.104323 -0.106444 -0.088130 -0.095949 -0.045335 -0.033060 -0.084074 0.027248 -0.032032 -0.065222 -0.109770 0.002519 0.085045 -0.030925 -0.057826 0.060575 -0.040649 -0.122457 0.009383 -0.006089 0.218223 0.089865 0.032875 -0.138794 -0.187109 0.083645 -0.052214 -0.146688 -0.021555 -0.048390 -0.107430 -0.048513 -0.089724 0.060795 0.025289 0.071230 -0.056336 -0.012853 -0.074881 -0.214246 0.142508 0.090854 -0.196797 -0.238019 0.131522 0.061501 -0.005230 0.128664 0.111554 -0.036963 -0.152174 0.066745 -0.076680 -0.019439 0.166395 -0.013985 -0.165407 0.074989 0.071344 0.112573 -0.199136 0.046472 0.014608 -0.180778 0.007152 0.092741 0.006914 0.064335 0.090765 -0.070103 -0.091696 -0.115704 -0.086988 -0.080836 -0.134949 0.135884 -0.049812 -0.167355 -0.009318 0.015575 -0.019351 0.156010 0.119896 0.104984 0.199615 0.094506 -0.130433 0.203937 0.031306 0.097927 0.131984 -0.109956 0.172686 -0.152306 0.105724 0.145046 0.037702 -0.164998 0.186988 0.197079 0.022862 0.041066 -0.128199 0.029997 -0.075544 0.010078 0.172314 0.052336 0.131444 0.101442 0.027736 0.077233 -0.083424 0.186119 0.005559 -0.046205 -0.152985 -0.070783 -0.002624 0.040595 -0.071643 -0.064989 -0.073583 -0.026979 -0.086371 -0.144331 -0.082963 0.096056 -0.229832 -0.120371 0.126833 0.050174 0.077161 -0.285535 0.055690 0.126280 -0.188752 -0.139156 0.073837 0.180325 -0.107281 0.061587 -0.034887 0.002954 -0.151127 -0.023240
( 0.155725 -0.055628 0.080798 0.016040 0.051545 -0.016031 0.034119 0.066450 -0.005457 0.022943 0.081581 -0.203544 0.032355 0.120266 0.044473 0.057060 -0.122782 0.036154 0.121175 -0.016397 0.005159 0.033745 0.003380 -0.212783 0.007200 0.037215 0.063497 -0.032211 0.176474 0.082395 0.182905 -0.078792 -0.065206 0.028980 0.113116 -0.061365 -0.088829 0.135852 -0.099868 0.110075 0.110584 0.004426 0.002291 0.121185 -0.118756 0.194817 -0.044937 -0.042389 0.043833 0.047176 -0.100095 0.034772 0.024145 0.257440 0.103564 -0.084037 -0.114034 0.053817 -0.125421 -0.047500 -0.001490 0.001289 0.012821 -0.027883 -0.150273 -0.048561 0.036182 -0.031169 -0.025487 0.055036 -0.005519 -0.051966 0.048912 -0.040972 0.112811 -0.017709 -0.018828 -0.117315 -0.222083 0.048123 -0.020151 -0.148163 0.054249 -0.095477 -0.067560 -0.058031 -0.153294 0.105675 0.001263 0.063145 -0.090689 0.004236 0.037687 -0.128922 0.089835 0.050800 -0.227782 -0.228338 0.132151 0.016764 0.015245 0.139052 0.153732 -0.058347 -0.111648 0.110425 -0.033073 0.074263 0.125728 0.017114 -0.202870 0.038976 0.161754 0.024243 -0.146122 0.011353 0.028663 -0.113651 -0.022382 0.006173 0.069399 0.009310 0.080922 -0.093978 -0.008392 -0.178290 -0.122171 -0.053202 -0.177337 0.087071 -0.020707 -0.144170 0.011919 -0.037976 0.019849 0.181942 0.049165 0.089074 0.095366 0.060534 -0.078985 0.215513 0.036516 0.166219 0.061827 -0.125103 0.138995 -0.148891 0.024975 0.058875 0.109091 -0.196205 0.149585 0.158658 0.002504 0.074382 -0.067874 -0.000434 -0.040755 0.026286 0.121766 0.052823 0.188288 0.131462 0.125294 0.086343 -0.136606 0.093210 -0.043140 -0.089525 -0.100881 -0.029925 0.071977 -0.018484 -0.052306 -0.042134 0.000125 0.014955 -0.024664 -0.248293 -0.027105 -0.043238 -0.210751 -0.199484 0.154176 0.012504 0.077671 -0.167767 0.101472 0.105708 -0.163233 -0.119125 0.131523 0.177358 -0.040241 0.079462 -0.056386 0.011890 -0.105290 0.000115
